<?xml version="1.0"?>
<opencv_storage>
<cascade>
  <stageType>BOOST</stageType>
  <featureType>HAAR</featureType>
  <height>24</height>
  <width>24</width>
  <stageParams>
    <boostType>GAB</boostType>
    <minHitRate>9.9500000476837158e-01</minHitRate>
    <maxFalseAlarm>5.0000000000000000e-01</maxFalseAlarm>
    <weightTrimRate>9.4999998807907104e-01</weightTrimRate>
    <maxDepth>1</maxDepth>
    <maxWeakCount>100</maxWeakCount></stageParams>
  <featureParams>
    <maxCatCount>0</maxCatCount>
    <featSize>1</featSize>
    <mode>BASIC</mode></featureParams>
  <stageNum>20</stageNum>
  <stages>
    <!-- stage 0 -->
    <_>
      <maxWeakCount>4</maxWeakCount>
      <stageThreshold>-1.4226605892181396e+00</stageThreshold>
      <weakClassifiers>
        <_>
          <internalNodes>
            0 -1 61 6.1950828880071640e-02</internalNodes>
          <leafValues>
            -8.2293760776519775e-01 9.6491229534149170e-01</leafValues></_>
        <_>
          <internalNodes>
            0 -1 43 3.1312543898820877e-02</internalNodes>
          <leafValues>
            -6.8120229244232178e-01 5.0276428461074829e-01</leafValues></_>
        <_>
          <internalNodes>
            0 -1 83 1.4757273718714714e-02</internalNodes>
          <leafValues>
            -6.1955523490905762e-01 4.5183551311492920e-01</leafValues></_>
        <_>
          <internalNodes>
            0 -1 90 7.0282914675772190e-03</internalNodes>
          <leafValues>
            -3.7035617232322693e-01 8.5622864961624146e-01</leafValues></_></weakClassifiers></_>
    <!-- stage 1 -->
    <_>
      <maxWeakCount>6</maxWeakCount>
      <stageThreshold>-1.0872470140457153e+00</stageThreshold>
      <weakClassifiers>
        <_>
          <internalNodes>
            0 -1 44 1.3830792903900146e-01</internalNodes>
          <leafValues>
            -8.2222223281860352e-01 8.9830505847930908e-01</leafValues></_>
        <_>
          <internalNodes>
            0 -1 50 7.4311848729848862e-03</internalNodes>
          <leafValues>
            -5.7390779256820679e-01 5.2813774347305298e-01</leafValues></_>
        <_>
          <internalNodes>
            0 -1 113 -3.0786008574068546e-03</internalNodes>
          <leafValues>
            7.1874797344207764e-01 -4.1997173428535461e-01</leafValues></_>
        <_>
          <internalNodes>
            0 -1 25 -6.7574428394436836e-03</internalNodes>
          <leafValues>
            3.7929773330688477e-01 -7.7141493558883667e-01</leafValues></_>
        <_>
          <internalNodes>
            0 -1 97 -5.0749415531754494e-03</internalNodes>
          <leafValues>
            8.4465962648391724e-01 -3.1895396113395691e-01</leafValues></_>
        <_>
          <internalNodes>
            0 -1 102 3.1677386723458767e-03</internalNodes>
          <leafValues>
            -4.3353456258773804e-01 6.7575776576995850e-01</leafValues></_></weakClassifiers></_>
    <!-- stage 2 -->
    <_>
      <maxWeakCount>5</maxWeakCount>
      <stageThreshold>-1.1427172422409058e+00</stageThreshold>
      <weakClassifiers>
        <_>
          <internalNodes>
            0 -1 46 1.4031234383583069e-01</internalNodes>
          <leafValues>
            -8.0408161878585815e-01 6.2500000000000000e-01</leafValues></_>
        <_>
          <internalNodes>
            0 -1 54 -5.7085219305008650e-04</internalNodes>
          <leafValues>
            6.8712538480758667e-01 -4.9694266915321350e-01</leafValues></_>
        <_>
          <internalNodes>
            0 -1 79 3.1904641073197126e-03</internalNodes>
          <leafValues>
            -3.1889244914054871e-01 9.0984207391738892e-01</leafValues></_>
        <_>
          <internalNodes>
            0 -1 108 -1.0705607011914253e-02</internalNodes>
          <leafValues>
            7.9354137182235718e-01 -2.8056976199150085e-01</leafValues></_>
        <_>
          <internalNodes>
            0 -1 136 -2.9043451650068164e-04</internalNodes>
          <leafValues>
            7.7914297580718994e-01 -3.1634187698364258e-01</leafValues></_></weakClassifiers></_>
    <!-- stage 3 -->
    <_>
      <maxWeakCount>6</maxWeakCount>
      <stageThreshold>-1.3847810029983521e+00</stageThreshold>
      <weakClassifiers>
        <_>
          <internalNodes>
            0 -1 103 1.8612537533044815e-02</internalNodes>
          <leafValues>
            -7.8087651729583740e-01 7.3076921701431274e-01</leafValues></_>
        <_>
          <internalNodes>
            0 -1 21 1.5746450424194336e-01</internalNodes>
          <leafValues>
            -5.5260980129241943e-01 3.8424211740493774e-01</leafValues></_>
        <_>
          <internalNodes>
            0 -1 93 3.0968105420470238e-03</internalNodes>
          <leafValues>
            -2.3554967343807220e-01 8.7854856252670288e-01</leafValues></_>
        <_>
          <internalNodes>
            0 -1 16 1.1449994519352913e-02</internalNodes>
          <leafValues>
            2.3956988751888275e-01 -8.6922013759613037e-01</leafValues></_>
        <_>
          <internalNodes>
            0 -1 91 7.8736823052167892e-03</internalNodes>
          <leafValues>
            -3.2672807574272156e-01 5.3664231300354004e-01</leafValues></_>
        <_>
          <internalNodes>
            0 -1 49 -6.2297731637954712e-03</internalNodes>
          <leafValues>
            -7.5122708082199097e-01 2.7141317725181580e-01</leafValues></_></weakClassifiers></_>
    <!-- stage 4 -->
    <_>
      <maxWeakCount>4</maxWeakCount>
      <stageThreshold>-8.7944632768630981e-01</stageThreshold>
      <weakClassifiers>
        <_>
          <internalNodes>
            0 -1 63 9.1852642595767975e-02</internalNodes>
          <leafValues>
            -7.7733600139617920e-01 7.2549021244049072e-01</leafValues></_>
        <_>
          <internalNodes>
            0 -1 73 2.0732091739773750e-02</internalNodes>
          <leafValues>
            -4.5197510719299316e-01 5.3323489427566528e-01</leafValues></_>
        <_>
          <internalNodes>
            0 -1 75 6.2335664406418800e-03</internalNodes>
          <leafValues>
            1.6461820900440216e-01 -9.1918283700942993e-01</leafValues></_>
        <_>
          <internalNodes>
            0 -1 10 -2.8344520833343267e-03</internalNodes>
          <leafValues>
            -1. 1.8524658679962158e-01</leafValues></_></weakClassifiers></_>
    <!-- stage 5 -->
    <_>
      <maxWeakCount>7</maxWeakCount>
      <stageThreshold>-1.5189601182937622e+00</stageThreshold>
      <weakClassifiers>
        <_>
          <internalNodes>
            0 -1 64 8.3741955459117889e-02</internalNodes>
          <leafValues>
            -7.5793653726577759e-01 5.6000000238418579e-01</leafValues></_>
        <_>
          <internalNodes>
            0 -1 88 -1.1455358937382698e-02</internalNodes>
          <leafValues>
            6.0225313901901245e-01 -4.7808477282524109e-01</leafValues></_>
        <_>
          <internalNodes>
            0 -1 20 9.2435916885733604e-03</internalNodes>
          <leafValues>
            2.4591419100761414e-01 -7.4601191282272339e-01</leafValues></_>
        <_>
          <internalNodes>
            0 -1 9 1.9362322986125946e-02</internalNodes>
          <leafValues>
            -2.8648620843887329e-01 6.5431463718414307e-01</leafValues></_>
        <_>
          <internalNodes>
            0 -1 96 5.6568062864243984e-03</internalNodes>
          <leafValues>
            -2.1239602565765381e-01 7.6647341251373291e-01</leafValues></_>
        <_>
          <internalNodes>
            0 -1 36 3.7672691047191620e-02</internalNodes>
          <leafValues>
            -3.8573017716407776e-01 4.7020286321640015e-01</leafValues></_>
        <_>
          <internalNodes>
            0 -1 84 -3.1744848936796188e-02</internalNodes>
          <leafValues>
            4.1134417057037354e-01 -5.0017362833023071e-01</leafValues></_></weakClassifiers></_>
    <!-- stage 6 -->
    <_>
      <maxWeakCount>6</maxWeakCount>
      <stageThreshold>-1.2502205371856689e+00</stageThreshold>
      <weakClassifiers>
        <_>
          <internalNodes>
            0 -1 77 3.3386051654815674e-02</internalNodes>
          <leafValues>
            -7.3359072208404541e-01 7.2222220897674561e-01</leafValues></_>
        <_>
          <internalNodes>
            0 -1 45 2.6969321072101593e-02</internalNodes>
          <leafValues>
            -3.9511710405349731e-01 5.4323667287826538e-01</leafValues></_>
        <_>
          <internalNodes>
            0 -1 126 -1.9885756075382233e-02</internalNodes>
          <leafValues>
            -1. 1.5163192152976990e-01</leafValues></_>
        <_>
          <internalNodes>
            0 -1 18 2.4309858679771423e-02</internalNodes>
          <leafValues>
            1.7994658648967743e-01 -9.3236005306243896e-01</leafValues></_>
        <_>
          <internalNodes>
            0 -1 123 -3.5860495700035244e-05</internalNodes>
          <leafValues>
            3.0787140130996704e-01 -4.6934539079666138e-01</leafValues></_>
        <_>
          <internalNodes>
            0 -1 47 -7.0739192888140678e-03</internalNodes>
          <leafValues>
            -7.6096266508102417e-01 2.4281175434589386e-01</leafValues></_></weakClassifiers></_>
    <!-- stage 7 -->
    <_>
      <maxWeakCount>5</maxWeakCount>
      <stageThreshold>-1.3079818487167358e+00</stageThreshold>
      <weakClassifiers>
        <_>
          <internalNodes>
            0 -1 107 1.4270037412643433e-02</internalNodes>
          <leafValues>
            -7.2200775146484375e-01 5.5555558204650879e-01</leafValues></_>
        <_>
          <internalNodes>
            0 -1 57 1.5454578399658203e-01</internalNodes>
          <leafValues>
            -4.0481603145599365e-01 5.4856050014495850e-01</leafValues></_>
        <_>
          <internalNodes>
            0 -1 129 1.9691258668899536e-02</internalNodes>
          <leafValues>
            1.5471653640270233e-01 -9.8644727468490601e-01</leafValues></_>
        <_>
          <internalNodes>
            0 -1 132 7.7418955042958260e-03</internalNodes>
          <leafValues>
            1.8255735933780670e-01 -9.2192673683166504e-01</leafValues></_>
        <_>
          <internalNodes>
            0 -1 22 7.6832322520203888e-05</internalNodes>
          <leafValues>
            -5.1843196153640747e-01 2.8746113181114197e-01</leafValues></_></weakClassifiers></_>
    <!-- stage 8 -->
    <_>
      <maxWeakCount>7</maxWeakCount>
      <stageThreshold>-1.0338046550750732e+00</stageThreshold>
      <weakClassifiers>
        <_>
          <internalNodes>
            0 -1 106 1.6091201454401016e-02</internalNodes>
          <leafValues>
            -7.4257427453994751e-01 4.2857143282890320e-01</leafValues></_>
        <_>
          <internalNodes>
            0 -1 52 9.0660213027149439e-04</internalNodes>
          <leafValues>
            -4.2575383186340332e-01 5.1050621271133423e-01</leafValues></_>
        <_>
          <internalNodes>
            0 -1 12 -5.5288630392169580e-05</internalNodes>
          <leafValues>
            4.9136790633201599e-01 -3.6590710282325745e-01</leafValues></_>
        <_>
          <internalNodes>
            0 -1 98 2.3391306400299072e-02</internalNodes>
          <leafValues>
            -2.2697259485721588e-01 7.5950676202774048e-01</leafValues></_>
        <_>
          <internalNodes>
            0 -1 101 -2.2524625528603792e-03</internalNodes>
          <leafValues>
            7.5083422660827637e-01 -1.9178080558776855e-01</leafValues></_>
        <_>
          <internalNodes>
            0 -1 13 4.9208880227524787e-05</internalNodes>
          <leafValues>
            -3.7266674637794495e-01 4.8865497112274170e-01</leafValues></_>
        <_>
          <internalNodes>
            0 -1 104 -1.0966431582346559e-03</internalNodes>
          <leafValues>
            4.3457570672035217e-01 -3.8348460197448730e-01</leafValues></_></weakClassifiers></_>
    <!-- stage 9 -->
    <_>
      <maxWeakCount>6</maxWeakCount>
      <stageThreshold>-9.3151336908340454e-01</stageThreshold>
      <weakClassifiers>
        <_>
          <internalNodes>
            0 -1 60 6.1411462724208832e-02</internalNodes>
          <leafValues>
            -7.1264368295669556e-01 5.6250000000000000e-01</leafValues></_>
        <_>
          <internalNodes>
            0 -1 112 9.5393024384975433e-03</internalNodes>
          <leafValues>
            -3.6511346697807312e-01 6.0291677713394165e-01</leafValues></_>
        <_>
          <internalNodes>
            0 -1 66 1.5675018075853586e-03</internalNodes>
          <leafValues>
            1.7289930582046509e-01 -8.4379470348358154e-01</leafValues></_>
        <_>
          <internalNodes>
            0 -1 121 2.3241989314556122e-02</internalNodes>
          <leafValues>
            1.7057338356971741e-01 -8.7437951564788818e-01</leafValues></_>
        <_>
          <internalNodes>
            0 -1 72 1.2252645567059517e-02</internalNodes>
          <leafValues>
            -2.7092516422271729e-01 6.4969599246978760e-01</leafValues></_>
        <_>
          <internalNodes>
            0 -1 1 1.2334177270531654e-02</internalNodes>
          <leafValues>
            2.1646618843078613e-01 -8.4692490100860596e-01</leafValues></_></weakClassifiers></_>
    <!-- stage 10 -->
    <_>
      <maxWeakCount>9</maxWeakCount>
      <stageThreshold>-1.1371555328369141e+00</stageThreshold>
      <weakClassifiers>
        <_>
          <internalNodes>
            0 -1 68 1.0487809777259827e-01</internalNodes>
          <leafValues>
            -7.4036508798599243e-01 1.8032786250114441e-01</leafValues></_>
        <_>
          <internalNodes>
            0 -1 95 -2.9919035732746124e-02</internalNodes>
          <leafValues>
            7.2225648164749146e-01 -3.4111472964286804e-01</leafValues></_>
        <_>
          <internalNodes>
            0 -1 11 -1.6835801303386688e-02</internalNodes>
          <leafValues>
            -8.4132266044616699e-01 1.9003747403621674e-01</leafValues></_>
        <_>
          <internalNodes>
            0 -1 19 -1.0420398786664009e-02</internalNodes>
          <leafValues>
            -8.4667944908142090e-01 1.1217080056667328e-01</leafValues></_>
        <_>
          <internalNodes>
            0 -1 117 5.0444616936147213e-03</internalNodes>
          <leafValues>
            -1.8635801970958710e-01 7.5992524623870850e-01</leafValues></_>
        <_>
          <internalNodes>
            0 -1 127 -4.1670827195048332e-03</internalNodes>
          <leafValues>
            -6.3788372278213501e-01 2.6761382818222046e-01</leafValues></_>
        <_>
          <internalNodes>
            0 -1 24 4.1199840605258942e-02</internalNodes>
          <leafValues>
            -4.9038434028625488e-01 2.4278934299945831e-01</leafValues></_>
        <_>
          <internalNodes>
            0 -1 59 -4.5499637722969055e-02</internalNodes>
          <leafValues>
            7.6633858680725098e-01 -1.7144556343555450e-01</leafValues></_>
        <_>
          <internalNodes>
            0 -1 65 -1.4172910014167428e-03</internalNodes>
          <leafValues>
            5.2087664604187012e-01 -3.1041622161865234e-01</leafValues></_></weakClassifiers></_>
    <!-- stage 11 -->
    <_>
      <maxWeakCount>7</maxWeakCount>
      <stageThreshold>-1.1513999700546265e+00</stageThreshold>
      <weakClassifiers>
        <_>
          <internalNodes>
            0 -1 110 -5.0969761796295643e-03</internalNodes>
          <leafValues>
            2.0000000298023224e-01 -7.3146295547485352e-01</leafValues></_>
        <_>
          <internalNodes>
            0 -1 67 -1.6442060470581055e-02</internalNodes>
          <leafValues>
            2.6158258318901062e-01 -4.7538936138153076e-01</leafValues></_>
        <_>
          <internalNodes>
            0 -1 81 -2.4839296936988831e-02</internalNodes>
          <leafValues>
            5.6548231840133667e-01 -2.3121227324008942e-01</leafValues></_>
        <_>
          <internalNodes>
            0 -1 86 -5.1815458573400974e-03</internalNodes>
          <leafValues>
            -1. 1.3173890113830566e-01</leafValues></_>
        <_>
          <internalNodes>
            0 -1 40 1.7113921931013465e-03</internalNodes>
          <leafValues>
            1.9934801757335663e-01 -6.0633331537246704e-01</leafValues></_>
        <_>
          <internalNodes>
            0 -1 30 5.6314410176128149e-04</internalNodes>
          <leafValues>
            -2.5624322891235352e-01 5.8197057247161865e-01</leafValues></_>
        <_>
          <internalNodes>
            0 -1 26 4.8757810145616531e-03</internalNodes>
          <leafValues>
            2.1182082593441010e-01 -6.9419533014297485e-01</leafValues></_></weakClassifiers></_>
    <!-- stage 12 -->
    <_>
      <maxWeakCount>8</maxWeakCount>
      <stageThreshold>-1.3727557659149170e+00</stageThreshold>
      <weakClassifiers>
        <_>
          <internalNodes>
            0 -1 80 -7.5412213802337646e-02</internalNodes>
          <leafValues>
            8.0000001192092896e-01 -6.9288390874862671e-01</leafValues></_>
        <_>
          <internalNodes>
            0 -1 2 9.5810145139694214e-03</internalNodes>
          <leafValues>
            -4.9825280904769897e-01 1.6762760281562805e-01</leafValues></_>
        <_>
          <internalNodes>
            0 -1 56 -6.1709787696599960e-03</internalNodes>
          <leafValues>
            5.3277540206909180e-01 -2.3714159429073334e-01</leafValues></_>
        <_>
          <internalNodes>
            0 -1 48 4.1528781875967979e-03</internalNodes>
          <leafValues>
            1.4747217297554016e-01 -9.0438896417617798e-01</leafValues></_>
        <_>
          <internalNodes>
            0 -1 5 1.8106054514646530e-02</internalNodes>
          <leafValues>
            -3.8178330659866333e-01 2.9326039552688599e-01</leafValues></_>
        <_>
          <internalNodes>
            0 -1 35 5.5280309170484543e-03</internalNodes>
          <leafValues>
            -2.5456500053405762e-01 5.3212672472000122e-01</leafValues></_>
        <_>
          <internalNodes>
            0 -1 31 -7.3235400486737490e-04</internalNodes>
          <leafValues>
            4.8792645335197449e-01 -2.5935086607933044e-01</leafValues></_>
        <_>
          <internalNodes>
            0 -1 62 2.3586682800669223e-04</internalNodes>
          <leafValues>
            -5.3717452287673950e-01 3.1091243028640747e-01</leafValues></_></weakClassifiers></_>
    <!-- stage 13 -->
    <_>
      <maxWeakCount>8</maxWeakCount>
      <stageThreshold>-1.3962235450744629e+00</stageThreshold>
      <weakClassifiers>
        <_>
          <internalNodes>
            0 -1 94 -6.5229743719100952e-02</internalNodes>
          <leafValues>
            8.7500000000000000e-01 -6.8401485681533813e-01</leafValues></_>
        <_>
          <internalNodes>
            0 -1 55 -2.1266085095703602e-03</internalNodes>
          <leafValues>
            -7.7348428964614868e-01 1.6512835398316383e-02</leafValues></_>
        <_>
          <internalNodes>
            0 -1 128 7.5594116933643818e-03</internalNodes>
          <leafValues>
            1.0865692794322968e-01 -1.</leafValues></_>
        <_>
          <internalNodes>
            0 -1 4 2.5460631586611271e-03</internalNodes>
          <leafValues>
            1.3335354626178741e-01 -8.3214700222015381e-01</leafValues></_>
        <_>
          <internalNodes>
            0 -1 122 -8.4071159362792969e-03</internalNodes>
          <leafValues>
            -6.4878410100936890e-01 1.1591809242963791e-01</leafValues></_>
        <_>
          <internalNodes>
            0 -1 85 9.4045754522085190e-03</internalNodes>
          <leafValues>
            1.0426994413137436e-01 -1.</leafValues></_>
        <_>
          <internalNodes>
            0 -1 41 1.6754103824496269e-02</internalNodes>
          <leafValues>
            -2.0514546334743500e-01 5.7974553108215332e-01</leafValues></_>
        <_>
          <internalNodes>
            0 -1 134 -3.4843830508179963e-04</internalNodes>
          <leafValues>
            4.5475566387176514e-01 -2.2107236087322235e-01</leafValues></_></weakClassifiers></_>
    <!-- stage 14 -->
    <_>
      <maxWeakCount>10</maxWeakCount>
      <stageThreshold>-1.4219937324523926e+00</stageThreshold>
      <weakClassifiers>
        <_>
          <internalNodes>
            0 -1 99 -5.4501138627529144e-02</internalNodes>
          <leafValues>
            8.6666667461395264e-01 -6.8089056015014648e-01</leafValues></_>
        <_>
          <internalNodes>
            0 -1 92 -1.0856268927454948e-02</internalNodes>
          <leafValues>
            2.1561729907989502e-01 -4.4066131114959717e-01</leafValues></_>
        <_>
          <internalNodes>
            0 -1 135 -1.4316353190224618e-04</internalNodes>
          <leafValues>
            3.5880178213119507e-01 -3.1389105319976807e-01</leafValues></_>
        <_>
          <internalNodes>
            0 -1 131 2.9783113859593868e-04</internalNodes>
          <leafValues>
            -2.7271544933319092e-01 4.1124036908149719e-01</leafValues></_>
        <_>
          <internalNodes>
            0 -1 78 2.7758818119764328e-02</internalNodes>
          <leafValues>
            -4.7326546907424927e-01 2.4725618958473206e-01</leafValues></_>
        <_>
          <internalNodes>
            0 -1 39 -6.3031703233718872e-02</internalNodes>
          <leafValues>
            3.2615807652473450e-01 -4.2380642890930176e-01</leafValues></_>
        <_>
          <internalNodes>
            0 -1 0 -3.7664147093892097e-03</internalNodes>
          <leafValues>
            -8.7040400505065918e-01 1.1641330271959305e-01</leafValues></_>
        <_>
          <internalNodes>
            0 -1 139 -2.0039873197674751e-04</internalNodes>
          <leafValues>
            3.8319867849349976e-01 -2.9777428507804871e-01</leafValues></_>
        <_>
          <internalNodes>
            0 -1 51 -5.2951660472899675e-04</internalNodes>
          <leafValues>
            5.6992799043655396e-01 -2.2021569311618805e-01</leafValues></_>
        <_>
          <internalNodes>
            0 -1 140 1.9507324323058128e-03</internalNodes>
          <leafValues>
            1.8033574521541595e-01 -7.4373543262481689e-01</leafValues></_></weakClassifiers></_>
    <!-- stage 15 -->
    <_>
      <maxWeakCount>6</maxWeakCount>
      <stageThreshold>-1.1161209344863892e+00</stageThreshold>
      <weakClassifiers>
        <_>
          <internalNodes>
            0 -1 109 4.6156356111168861e-03</internalNodes>
          <leafValues>
            -7.1543085575103760e-01 5.4545454680919647e-02</leafValues></_>
        <_>
          <internalNodes>
            0 -1 14 -2.9155379161238670e-04</internalNodes>
          <leafValues>
            3.0390733480453491e-01 -3.9025411009788513e-01</leafValues></_>
        <_>
          <internalNodes>
            0 -1 32 -1.0919789783656597e-02</internalNodes>
          <leafValues>
            -7.5061589479446411e-01 1.3674651086330414e-01</leafValues></_>
        <_>
          <internalNodes>
            0 -1 38 -9.0958114014938474e-04</internalNodes>
          <leafValues>
            4.0069821476936340e-01 -2.8907316923141479e-01</leafValues></_>
        <_>
          <internalNodes>
            0 -1 133 -7.8133807983249426e-04</internalNodes>
          <leafValues>
            4.6756935119628906e-01 -2.3373469710350037e-01</leafValues></_>
        <_>
          <internalNodes>
            0 -1 58 -4.1260812431573868e-03</internalNodes>
          <leafValues>
            5.5503964424133301e-01 -1.9675995409488678e-01</leafValues></_></weakClassifiers></_>
    <!-- stage 16 -->
    <_>
      <maxWeakCount>7</maxWeakCount>
      <stageThreshold>-1.1102260351181030e+00</stageThreshold>
      <weakClassifiers>
        <_>
          <internalNodes>
            0 -1 111 -1.0906908661127090e-02</internalNodes>
          <leafValues>
            1. -6.7219150066375732e-01</leafValues></_>
        <_>
          <internalNodes>
            0 -1 71 3.3357836306095123e-02</internalNodes>
          <leafValues>
            -3.4713420271873474e-01 3.2539275288581848e-01</leafValues></_>
        <_>
          <internalNodes>
            0 -1 23 -5.0845323130488396e-05</internalNodes>
          <leafValues>
            3.3599424362182617e-01 -2.9834425449371338e-01</leafValues></_>
        <_>
          <internalNodes>
            0 -1 105 -7.3189912363886833e-03</internalNodes>
          <leafValues>
            -9.7786641120910645e-01 9.7317077219486237e-02</leafValues></_>
        <_>
          <internalNodes>
            0 -1 120 -1.7957671079784632e-03</internalNodes>
          <leafValues>
            -3.7194985151290894e-01 2.6350075006484985e-01</leafValues></_>
        <_>
          <internalNodes>
            0 -1 42 -1.0243322700262070e-02</internalNodes>
          <leafValues>
            5.7367718219757080e-01 -1.6924534738063812e-01</leafValues></_>
        <_>
          <internalNodes>
            0 -1 8 -2.2004893049597740e-02</internalNodes>
          <leafValues>
            -7.6412737369537354e-01 1.4383986592292786e-01</leafValues></_></weakClassifiers></_>
    <!-- stage 17 -->
    <_>
      <maxWeakCount>10</maxWeakCount>
      <stageThreshold>-1.4283888339996338e+00</stageThreshold>
      <weakClassifiers>
        <_>
          <internalNodes>
            0 -1 76 -9.7502591088414192e-03</internalNodes>
          <leafValues>
            1. -6.7219150066375732e-01</leafValues></_>
        <_>
          <internalNodes>
            0 -1 6 1.6353565454483032e-01</internalNodes>
          <leafValues>
            -3.8479071855545044e-01 2.9607042670249939e-01</leafValues></_>
        <_>
          <internalNodes>
            0 -1 53 6.9324029027484357e-05</internalNodes>
          <leafValues>
            -3.1997150182723999e-01 3.2031077146530151e-01</leafValues></_>
        <_>
          <internalNodes>
            0 -1 82 -4.0085697546601295e-03</internalNodes>
          <leafValues>
            4.9681043624877930e-01 -2.0810368657112122e-01</leafValues></_>
        <_>
          <internalNodes>
            0 -1 34 -1.6470674425363541e-02</internalNodes>
          <leafValues>
            5.3656297922134399e-01 -1.9484615325927734e-01</leafValues></_>
        <_>
          <internalNodes>
            0 -1 115 -2.6128534227609634e-02</internalNodes>
          <leafValues>
            7.9870104789733887e-01 -1.1746404320001602e-01</leafValues></_>
        <_>
          <internalNodes>
            0 -1 33 -2.9935813508927822e-03</internalNodes>
          <leafValues>
            -8.8674509525299072e-01 1.3254828751087189e-01</leafValues></_>
        <_>
          <internalNodes>
            0 -1 70 -1.7638558056205511e-03</internalNodes>
          <leafValues>
            5.4486119747161865e-01 -1.9216392934322357e-01</leafValues></_>
        <_>
          <internalNodes>
            0 -1 17 9.0259686112403870e-04</internalNodes>
          <leafValues>
            -3.0106276273727417e-01 3.2818675041198730e-01</leafValues></_>
        <_>
          <internalNodes>
            0 -1 116 1.3984003104269505e-02</internalNodes>
          <leafValues>
            1.4879600703716278e-01 -8.7482517957687378e-01</leafValues></_></weakClassifiers></_>
    <!-- stage 18 -->
    <_>
      <maxWeakCount>10</maxWeakCount>
      <stageThreshold>-1.1320263147354126e+00</stageThreshold>
      <weakClassifiers>
        <_>
          <internalNodes>
            0 -1 89 6.2822988256812096e-03</internalNodes>
          <leafValues>
            -6.7467653751373291e-01 8.4615385532379150e-01</leafValues></_>
        <_>
          <internalNodes>
            0 -1 15 -1.8876934191212058e-03</internalNodes>
          <leafValues>
            3.1681513786315918e-01 -3.5623198747634888e-01</leafValues></_>
        <_>
          <internalNodes>
            0 -1 3 -9.3192383646965027e-03</internalNodes>
          <leafValues>
            -7.6433736085891724e-01 1.6509506106376648e-01</leafValues></_>
        <_>
          <internalNodes>
            0 -1 124 -2.9333713464438915e-03</internalNodes>
          <leafValues>
            -1. 7.3915325105190277e-02</leafValues></_>
        <_>
          <internalNodes>
            0 -1 138 5.3616135846823454e-04</internalNodes>
          <leafValues>
            -2.5394797325134277e-01 3.8089156150817871e-01</leafValues></_>
        <_>
          <internalNodes>
            0 -1 28 -3.0357390642166138e-02</internalNodes>
          <leafValues>
            5.3443282842636108e-01 -1.6270606219768524e-01</leafValues></_>
        <_>
          <internalNodes>
            0 -1 141 -3.1228159787133336e-04</internalNodes>
          <leafValues>
            3.4513291716575623e-01 -2.8821107745170593e-01</leafValues></_>
        <_>
          <internalNodes>
            0 -1 125 -9.1292122378945351e-03</internalNodes>
          <leafValues>
            -5.7170170545578003e-01 2.0893105864524841e-01</leafValues></_>
        <_>
          <internalNodes>
            0 -1 118 -1.1114944703876972e-02</internalNodes>
          <leafValues>
            5.5866754055023193e-01 -1.9201897084712982e-01</leafValues></_>
        <_>
          <internalNodes>
            0 -1 119 1.4960955595597625e-03</internalNodes>
          <leafValues>
            -1.7793351411819458e-01 6.0299205780029297e-01</leafValues></_></weakClassifiers></_>
    <!-- stage 19 -->
    <_>
      <maxWeakCount>11</maxWeakCount>
      <stageThreshold>-1.2689672708511353e+00</stageThreshold>
      <weakClassifiers>
        <_>
          <internalNodes>
            0 -1 100 -6.9102749228477478e-02</internalNodes>
          <leafValues>
            4.5454546809196472e-01 -6.8421053886413574e-01</leafValues></_>
        <_>
          <internalNodes>
            0 -1 87 -8.6971707642078400e-03</internalNodes>
          <leafValues>
            2.5914642214775085e-01 -3.6930671334266663e-01</leafValues></_>
        <_>
          <internalNodes>
            0 -1 74 1.3352282345294952e-02</internalNodes>
          <leafValues>
            -1.9022394716739655e-01 5.0199532508850098e-01</leafValues></_>
        <_>
          <internalNodes>
            0 -1 137 5.4940779227763414e-04</internalNodes>
          <leafValues>
            -2.2451281547546387e-01 4.0890726447105408e-01</leafValues></_>
        <_>
          <internalNodes>
            0 -1 130 -6.8333637900650501e-03</internalNodes>
          <leafValues>
            -7.5350290536880493e-01 1.4277788996696472e-01</leafValues></_>
        <_>
          <internalNodes>
            0 -1 114 -1.3597439974546432e-03</internalNodes>
          <leafValues>
            4.4398769736289978e-01 -1.9313509762287140e-01</leafValues></_>
        <_>
          <internalNodes>
            0 -1 37 -3.9414286613464355e-02</internalNodes>
          <leafValues>
            5.0983917713165283e-01 -2.0219317078590393e-01</leafValues></_>
        <_>
          <internalNodes>
            0 -1 69 4.3648406863212585e-02</internalNodes>
          <leafValues>
            -1.1174264550209045e-01 7.9876285791397095e-01</leafValues></_>
        <_>
          <internalNodes>
            0 -1 29 3.7464355118572712e-03</internalNodes>
          <leafValues>
            -2.0959685742855072e-01 4.3751913309097290e-01</leafValues></_>
        <_>
          <internalNodes>
            0 -1 7 -3.0668612569570541e-02</internalNodes>
          <leafValues>
            3.6578175425529480e-01 -2.7114346623420715e-01</leafValues></_>
        <_>
          <internalNodes>
            0 -1 27 -1.6538422554731369e-02</internalNodes>
          <leafValues>
            4.2843878269195557e-01 -3.0463752150535583e-01</leafValues></_></weakClassifiers></_></stages>
  <features>
    <_>
      <rects>
        <_>
          0 0 4 3 -1.</_>
        <_>
          2 0 2 3 2.</_></rects>
      <tilted>0</tilted></_>
    <_>
      <rects>
        <_>
          0 0 4 17 -1.</_>
        <_>
          2 0 2 17 2.</_></rects>
      <tilted>0</tilted></_>
    <_>
      <rects>
        <_>
          0 1 12 5 -1.</_>
        <_>
          6 1 6 5 2.</_></rects>
      <tilted>0</tilted></_>
    <_>
      <rects>
        <_>
          0 9 6 14 -1.</_>
        <_>
          2 9 2 14 3.</_></rects>
      <tilted>0</tilted></_>
    <_>
      <rects>
        <_>
          0 11 2 8 -1.</_>
        <_>
          0 11 1 4 2.</_>
        <_>
          1 15 1 4 2.</_></rects>
      <tilted>0</tilted></_>
    <_>
      <rects>
        <_>
          0 11 24 1 -1.</_>
        <_>
          8 11 8 1 3.</_></rects>
      <tilted>0</tilted></_>
    <_>
      <rects>
        <_>
          0 12 21 7 -1.</_>
        <_>
          7 12 7 7 3.</_></rects>
      <tilted>0</tilted></_>
    <_>
      <rects>
        <_>
          0 14 12 10 -1.</_>
        <_>
          0 14 6 5 2.</_>
        <_>
          6 19 6 5 2.</_></rects>
      <tilted>0</tilted></_>
    <_>
      <rects>
        <_>
          1 0 6 24 -1.</_>
        <_>
          1 0 3 12 2.</_>
        <_>
          4 12 3 12 2.</_></rects>
      <tilted>0</tilted></_>
    <_>
      <rects>
        <_>
          1 0 10 6 -1.</_>
        <_>
          1 2 10 2 3.</_></rects>
      <tilted>0</tilted></_>
    <_>
      <rects>
        <_>
          1 1 2 6 -1.</_>
        <_>
          2 1 1 6 2.</_></rects>
      <tilted>0</tilted></_>
    <_>
      <rects>
        <_>
          1 2 6 19 -1.</_>
        <_>
          3 2 2 19 3.</_></rects>
      <tilted>0</tilted></_>
    <_>
      <rects>
        <_>
          1 3 2 1 -1.</_>
        <_>
          2 3 1 1 2.</_></rects>
      <tilted>0</tilted></_>
    <_>
      <rects>
        <_>
          1 7 2 2 -1.</_>
        <_>
          1 7 1 1 2.</_>
        <_>
          2 8 1 1 2.</_></rects>
      <tilted>0</tilted></_>
    <_>
      <rects>
        <_>
          1 8 2 2 -1.</_>
        <_>
          1 8 1 1 2.</_>
        <_>
          2 9 1 1 2.</_></rects>
      <tilted>0</tilted></_>
    <_>
      <rects>
        <_>
          1 11 4 3 -1.</_>
        <_>
          1 12 4 1 3.</_></rects>
      <tilted>0</tilted></_>
    <_>
      <rects>
        <_>
          1 14 9 10 -1.</_>
        <_>
          4 14 3 10 3.</_></rects>
      <tilted>0</tilted></_>
    <_>
      <rects>
        <_>
          1 18 10 3 -1.</_>
        <_>
          1 19 10 1 3.</_></rects>
      <tilted>0</tilted></_>
    <_>
      <rects>
        <_>
          1 22 21 2 -1.</_>
        <_>
          8 22 7 2 3.</_></rects>
      <tilted>0</tilted></_>
    <_>
      <rects>
        <_>
          2 0 15 2 -1.</_>
        <_>
          7 0 5 2 3.</_></rects>
      <tilted>0</tilted></_>
    <_>
      <rects>
        <_>
          2 0 18 1 -1.</_>
        <_>
          8 0 6 1 3.</_></rects>
      <tilted>0</tilted></_>
    <_>
      <rects>
        <_>
          2 3 18 12 -1.</_>
        <_>
          8 3 6 12 3.</_></rects>
      <tilted>0</tilted></_>
    <_>
      <rects>
        <_>
          2 6 6 2 -1.</_>
        <_>
          2 6 3 1 2.</_>
        <_>
          5 7 3 1 2.</_></rects>
      <tilted>0</tilted></_>
    <_>
      <rects>
        <_>
          2 7 2 2 -1.</_>
        <_>
          2 7 1 1 2.</_>
        <_>
          3 8 1 1 2.</_></rects>
      <tilted>0</tilted></_>
    <_>
      <rects>
        <_>
          2 8 12 8 -1.</_>
        <_>
          8 8 6 8 2.</_></rects>
      <tilted>0</tilted></_>
    <_>
      <rects>
        <_>
          2 11 12 12 -1.</_>
        <_>
          2 11 6 6 2.</_>
        <_>
          8 17 6 6 2.</_></rects>
      <tilted>0</tilted></_>
    <_>
      <rects>
        <_>
          3 0 9 3 -1.</_>
        <_>
          6 0 3 3 3.</_></rects>
      <tilted>0</tilted></_>
    <_>
      <rects>
        <_>
          3 2 9 4 -1.</_>
        <_>
          6 2 3 4 3.</_></rects>
      <tilted>0</tilted></_>
    <_>
      <rects>
        <_>
          3 4 10 6 -1.</_>
        <_>
          3 6 10 2 3.</_></rects>
      <tilted>0</tilted></_>
    <_>
      <rects>
        <_>
          3 7 1 10 -1.</_>
        <_>
          3 12 1 5 2.</_></rects>
      <tilted>0</tilted></_>
    <_>
      <rects>
        <_>
          3 17 2 2 -1.</_>
        <_>
          3 17 1 1 2.</_>
        <_>
          4 18 1 1 2.</_></rects>
      <tilted>0</tilted></_>
    <_>
      <rects>
        <_>
          4 0 6 2 -1.</_>
        <_>
          4 0 3 1 2.</_>
        <_>
          7 1 3 1 2.</_></rects>
      <tilted>0</tilted></_>
    <_>
      <rects>
        <_>
          4 2 4 14 -1.</_>
        <_>
          6 2 2 14 2.</_></rects>
      <tilted>0</tilted></_>
    <_>
      <rects>
        <_>
          4 3 2 8 -1.</_>
        <_>
          4 3 1 4 2.</_>
        <_>
          5 7 1 4 2.</_></rects>
      <tilted>0</tilted></_>
    <_>
      <rects>
        <_>
          4 3 9 2 -1.</_>
        <_>
          7 3 3 2 3.</_></rects>
      <tilted>0</tilted></_>
    <_>
      <rects>
        <_>
          4 4 16 2 -1.</_>
        <_>
          4 4 8 1 2.</_>
        <_>
          12 5 8 1 2.</_></rects>
      <tilted>0</tilted></_>
    <_>
      <rects>
        <_>
          4 5 11 10 -1.</_>
        <_>
          4 10 11 5 2.</_></rects>
      <tilted>0</tilted></_>
    <_>
      <rects>
        <_>
          4 7 7 14 -1.</_>
        <_>
          4 14 7 7 2.</_></rects>
      <tilted>0</tilted></_>
    <_>
      <rects>
        <_>
          4 11 4 8 -1.</_>
        <_>
          6 11 2 8 2.</_></rects>
      <tilted>0</tilted></_>
    <_>
      <rects>
        <_>
          5 4 18 20 -1.</_>
        <_>
          14 4 9 20 2.</_></rects>
      <tilted>0</tilted></_>
    <_>
      <rects>
        <_>
          5 6 2 9 -1.</_>
        <_>
          6 6 1 9 2.</_></rects>
      <tilted>0</tilted></_>
    <_>
      <rects>
        <_>
          5 6 8 4 -1.</_>
        <_>
          5 6 4 2 2.</_>
        <_>
          9 8 4 2 2.</_></rects>
      <tilted>0</tilted></_>
    <_>
      <rects>
        <_>
          5 8 12 1 -1.</_>
        <_>
          9 8 4 1 3.</_></rects>
      <tilted>0</tilted></_>
    <_>
      <rects>
        <_>
          5 8 12 6 -1.</_>
        <_>
          9 8 4 6 3.</_></rects>
      <tilted>0</tilted></_>
    <_>
      <rects>
        <_>
          5 10 12 9 -1.</_>
        <_>
          9 10 4 9 3.</_></rects>
      <tilted>0</tilted></_>
    <_>
      <rects>
        <_>
          5 11 12 1 -1.</_>
        <_>
          9 11 4 1 3.</_></rects>
      <tilted>0</tilted></_>
    <_>
      <rects>
        <_>
          5 11 12 7 -1.</_>
        <_>
          9 11 4 7 3.</_></rects>
      <tilted>0</tilted></_>
    <_>
      <rects>
        <_>
          5 22 12 2 -1.</_>
        <_>
          9 22 4 2 3.</_></rects>
      <tilted>0</tilted></_>
    <_>
      <rects>
        <_>
          6 0 8 1 -1.</_>
        <_>
          10 0 4 1 2.</_></rects>
      <tilted>0</tilted></_>
    <_>
      <rects>
        <_>
          6 1 2 8 -1.</_>
        <_>
          6 5 2 4 2.</_></rects>
      <tilted>0</tilted></_>
    <_>
      <rects>
        <_>
          6 3 6 2 -1.</_>
        <_>
          9 3 3 2 2.</_></rects>
      <tilted>0</tilted></_>
    <_>
      <rects>
        <_>
          6 14 2 2 -1.</_>
        <_>
          6 14 1 1 2.</_>
        <_>
          7 15 1 1 2.</_></rects>
      <tilted>0</tilted></_>
    <_>
      <rects>
        <_>
          6 16 1 3 -1.</_>
        <_>
          6 17 1 1 3.</_></rects>
      <tilted>0</tilted></_>
    <_>
      <rects>
        <_>
          6 18 3 3 -1.</_>
        <_>
          7 18 1 3 3.</_></rects>
      <tilted>0</tilted></_>
    <_>
      <rects>
        <_>
          6 19 2 2 -1.</_>
        <_>
          6 19 1 1 2.</_>
        <_>
          7 20 1 1 2.</_></rects>
      <tilted>0</tilted></_>
    <_>
      <rects>
        <_>
          7 0 1 6 -1.</_>
        <_>
          7 2 1 2 3.</_></rects>
      <tilted>0</tilted></_>
    <_>
      <rects>
        <_>
          7 1 6 5 -1.</_>
        <_>
          9 1 2 5 3.</_></rects>
      <tilted>0</tilted></_>
    <_>
      <rects>
        <_>
          7 3 9 13 -1.</_>
        <_>
          10 3 3 13 3.</_></rects>
      <tilted>0</tilted></_>
    <_>
      <rects>
        <_>
          7 4 6 1 -1.</_>
        <_>
          9 4 2 1 3.</_></rects>
      <tilted>0</tilted></_>
    <_>
      <rects>
        <_>
          7 9 12 10 -1.</_>
        <_>
          11 9 4 10 3.</_></rects>
      <tilted>0</tilted></_>
    <_>
      <rects>
        <_>
          7 10 6 6 -1.</_>
        <_>
          9 10 2 6 3.</_></rects>
      <tilted>0</tilted></_>
    <_>
      <rects>
        <_>
          7 10 9 5 -1.</_>
        <_>
          10 10 3 5 3.</_></rects>
      <tilted>0</tilted></_>
    <_>
      <rects>
        <_>
          7 10 7 9 -1.</_>
        <_>
          7 13 7 3 3.</_></rects>
      <tilted>0</tilted></_>
    <_>
      <rects>
        <_>
          7 11 9 5 -1.</_>
        <_>
          10 11 3 5 3.</_></rects>
      <tilted>0</tilted></_>
    <_>
      <rects>
        <_>
          7 12 9 4 -1.</_>
        <_>
          10 12 3 4 3.</_></rects>
      <tilted>0</tilted></_>
    <_>
      <rects>
        <_>
          7 13 6 4 -1.</_>
        <_>
          9 13 2 4 3.</_></rects>
      <tilted>0</tilted></_>
    <_>
      <rects>
        <_>
          7 21 4 1 -1.</_>
        <_>
          9 21 2 1 2.</_></rects>
      <tilted>0</tilted></_>
    <_>
      <rects>
        <_>
          8 0 14 6 -1.</_>
        <_>
          8 0 7 3 2.</_>
        <_>
          15 3 7 3 2.</_></rects>
      <tilted>0</tilted></_>
    <_>
      <rects>
        <_>
          8 2 6 13 -1.</_>
        <_>
          10 2 2 13 3.</_></rects>
      <tilted>0</tilted></_>
    <_>
      <rects>
        <_>
          8 2 7 6 -1.</_>
        <_>
          8 5 7 3 2.</_></rects>
      <tilted>0</tilted></_>
    <_>
      <rects>
        <_>
          8 5 6 1 -1.</_>
        <_>
          10 5 2 1 3.</_></rects>
      <tilted>0</tilted></_>
    <_>
      <rects>
        <_>
          8 14 6 6 -1.</_>
        <_>
          10 14 2 6 3.</_></rects>
      <tilted>0</tilted></_>
    <_>
      <rects>
        <_>
          9 1 4 6 -1.</_>
        <_>
          9 1 2 3 2.</_>
        <_>
          11 4 2 3 2.</_></rects>
      <tilted>0</tilted></_>
    <_>
      <rects>
        <_>
          9 1 4 6 -1.</_>
        <_>
          9 3 4 2 3.</_></rects>
      <tilted>0</tilted></_>
    <_>
      <rects>
        <_>
          9 1 8 6 -1.</_>
        <_>
          9 1 4 3 2.</_>
        <_>
          13 4 4 3 2.</_></rects>
      <tilted>0</tilted></_>
    <_>
      <rects>
        <_>
          9 1 14 1 -1.</_>
        <_>
          16 1 7 1 2.</_></rects>
      <tilted>0</tilted></_>
    <_>
      <rects>
        <_>
          9 2 4 2 -1.</_>
        <_>
          9 2 2 1 2.</_>
        <_>
          11 3 2 1 2.</_></rects>
      <tilted>0</tilted></_>
    <_>
      <rects>
        <_>
          9 2 4 6 -1.</_>
        <_>
          9 4 4 2 3.</_></rects>
      <tilted>0</tilted></_>
    <_>
      <rects>
        <_>
          9 2 6 14 -1.</_>
        <_>
          9 9 6 7 2.</_></rects>
      <tilted>0</tilted></_>
    <_>
      <rects>
        <_>
          9 4 3 2 -1.</_>
        <_>
          10 4 1 2 3.</_></rects>
      <tilted>0</tilted></_>
    <_>
      <rects>
        <_>
          9 4 3 9 -1.</_>
        <_>
          9 7 3 3 3.</_></rects>
      <tilted>0</tilted></_>
    <_>
      <rects>
        <_>
          9 5 6 16 -1.</_>
        <_>
          9 5 3 8 2.</_>
        <_>
          12 13 3 8 2.</_></rects>
      <tilted>0</tilted></_>
    <_>
      <rects>
        <_>
          9 6 6 1 -1.</_>
        <_>
          11 6 2 1 3.</_></rects>
      <tilted>0</tilted></_>
    <_>
      <rects>
        <_>
          9 6 6 8 -1.</_>
        <_>
          9 10 6 4 2.</_></rects>
      <tilted>0</tilted></_>
    <_>
      <rects>
        <_>
          9 8 10 13 -1.</_>
        <_>
          14 8 5 13 2.</_></rects>
      <tilted>0</tilted></_>
    <_>
      <rects>
        <_>
          9 22 6 2 -1.</_>
        <_>
          11 22 2 2 3.</_></rects>
      <tilted>0</tilted></_>
    <_>
      <rects>
        <_>
          10 0 8 1 -1.</_>
        <_>
          14 0 4 1 2.</_></rects>
      <tilted>0</tilted></_>
    <_>
      <rects>
        <_>
          10 1 6 4 -1.</_>
        <_>
          10 1 3 2 2.</_>
        <_>
          13 3 3 2 2.</_></rects>
      <tilted>0</tilted></_>
    <_>
      <rects>
        <_>
          10 1 8 4 -1.</_>
        <_>
          10 1 4 2 2.</_>
        <_>
          14 3 4 2 2.</_></rects>
      <tilted>0</tilted></_>
    <_>
      <rects>
        <_>
          10 2 1 2 -1.</_>
        <_>
          10 3 1 1 2.</_></rects>
      <tilted>0</tilted></_>
    <_>
      <rects>
        <_>
          10 2 3 7 -1.</_>
        <_>
          11 2 1 7 3.</_></rects>
      <tilted>0</tilted></_>
    <_>
      <rects>
        <_>
          10 3 6 4 -1.</_>
        <_>
          10 3 3 2 2.</_>
        <_>
          13 5 3 2 2.</_></rects>
      <tilted>0</tilted></_>
    <_>
      <rects>
        <_>
          10 3 8 2 -1.</_>
        <_>
          14 3 4 2 2.</_></rects>
      <tilted>0</tilted></_>
    <_>
      <rects>
        <_>
          10 4 3 1 -1.</_>
        <_>
          11 4 1 1 3.</_></rects>
      <tilted>0</tilted></_>
    <_>
      <rects>
        <_>
          10 4 2 9 -1.</_>
        <_>
          10 7 2 3 3.</_></rects>
      <tilted>0</tilted></_>
    <_>
      <rects>
        <_>
          10 4 3 6 -1.</_>
        <_>
          10 6 3 2 3.</_></rects>
      <tilted>0</tilted></_>
    <_>
      <rects>
        <_>
          10 4 5 2 -1.</_>
        <_>
          10 5 5 1 2.</_></rects>
      <tilted>0</tilted></_>
    <_>
      <rects>
        <_>
          10 5 3 8 -1.</_>
        <_>
          11 5 1 8 3.</_></rects>
      <tilted>0</tilted></_>
    <_>
      <rects>
        <_>
          10 5 3 10 -1.</_>
        <_>
          11 5 1 10 3.</_></rects>
      <tilted>0</tilted></_>
    <_>
      <rects>
        <_>
          10 5 2 9 -1.</_>
        <_>
          10 8 2 3 3.</_></rects>
      <tilted>0</tilted></_>
    <_>
      <rects>
        <_>
          10 5 3 9 -1.</_>
        <_>
          10 8 3 3 3.</_></rects>
      <tilted>0</tilted></_>
    <_>
      <rects>
        <_>
          10 6 3 1 -1.</_>
        <_>
          11 6 1 1 3.</_></rects>
      <tilted>0</tilted></_>
    <_>
      <rects>
        <_>
          10 7 3 7 -1.</_>
        <_>
          11 7 1 7 3.</_></rects>
      <tilted>0</tilted></_>
    <_>
      <rects>
        <_>
          10 9 3 10 -1.</_>
        <_>
          11 9 1 10 3.</_></rects>
      <tilted>0</tilted></_>
    <_>
      <rects>
        <_>
          10 17 1 4 -1.</_>
        <_>
          10 19 1 2 2.</_></rects>
      <tilted>0</tilted></_>
    <_>
      <rects>
        <_>
          10 22 6 2 -1.</_>
        <_>
          12 22 2 2 3.</_></rects>
      <tilted>0</tilted></_>
    <_>
      <rects>
        <_>
          11 0 1 9 -1.</_>
        <_>
          11 3 1 3 3.</_></rects>
      <tilted>0</tilted></_>
    <_>
      <rects>
        <_>
          11 2 1 6 -1.</_>
        <_>
          11 4 1 2 3.</_></rects>
      <tilted>0</tilted></_>
    <_>
      <rects>
        <_>
          11 2 6 4 -1.</_>
        <_>
          13 2 2 4 3.</_></rects>
      <tilted>0</tilted></_>
    <_>
      <rects>
        <_>
          11 5 2 4 -1.</_>
        <_>
          11 5 1 2 2.</_>
        <_>
          12 7 1 2 2.</_></rects>
      <tilted>0</tilted></_>
    <_>
      <rects>
        <_>
          11 7 2 3 -1.</_>
        <_>
          11 8 2 1 3.</_></rects>
      <tilted>0</tilted></_>
    <_>
      <rects>
        <_>
          11 8 4 2 -1.</_>
        <_>
          11 8 2 1 2.</_>
        <_>
          13 9 2 1 2.</_></rects>
      <tilted>0</tilted></_>
    <_>
      <rects>
        <_>
          11 11 3 4 -1.</_>
        <_>
          12 11 1 4 3.</_></rects>
      <tilted>0</tilted></_>
    <_>
      <rects>
        <_>
          11 14 3 8 -1.</_>
        <_>
          12 14 1 8 3.</_></rects>
      <tilted>0</tilted></_>
    <_>
      <rects>
        <_>
          11 19 2 2 -1.</_>
        <_>
          12 19 1 2 2.</_></rects>
      <tilted>0</tilted></_>
    <_>
      <rects>
        <_>
          12 3 1 12 -1.</_>
        <_>
          12 7 1 4 3.</_></rects>
      <tilted>0</tilted></_>
    <_>
      <rects>
        <_>
          12 5 12 5 -1.</_>
        <_>
          16 5 4 5 3.</_></rects>
      <tilted>0</tilted></_>
    <_>
      <rects>
        <_>
          12 8 3 2 -1.</_>
        <_>
          13 8 1 2 3.</_></rects>
      <tilted>0</tilted></_>
    <_>
      <rects>
        <_>
          12 13 3 11 -1.</_>
        <_>
          13 13 1 11 3.</_></rects>
      <tilted>0</tilted></_>
    <_>
      <rects>
        <_>
          12 14 2 6 -1.</_>
        <_>
          13 14 1 6 2.</_></rects>
      <tilted>0</tilted></_>
    <_>
      <rects>
        <_>
          14 2 2 19 -1.</_>
        <_>
          15 2 1 19 2.</_></rects>
      <tilted>0</tilted></_>
    <_>
      <rects>
        <_>
          14 7 9 12 -1.</_>
        <_>
          17 7 3 12 3.</_></rects>
      <tilted>0</tilted></_>
    <_>
      <rects>
        <_>
          14 9 4 7 -1.</_>
        <_>
          16 9 2 7 2.</_></rects>
      <tilted>0</tilted></_>
    <_>
      <rects>
        <_>
          14 11 2 6 -1.</_>
        <_>
          14 11 1 3 2.</_>
        <_>
          15 14 1 3 2.</_></rects>
      <tilted>0</tilted></_>
    <_>
      <rects>
        <_>
          15 2 2 4 -1.</_>
        <_>
          16 2 1 4 2.</_></rects>
      <tilted>0</tilted></_>
    <_>
      <rects>
        <_>
          15 13 9 10 -1.</_>
        <_>
          18 13 3 10 3.</_></rects>
      <tilted>0</tilted></_>
    <_>
      <rects>
        <_>
          16 0 6 12 -1.</_>
        <_>
          19 0 3 12 2.</_></rects>
      <tilted>0</tilted></_>
    <_>
      <rects>
        <_>
          16 10 6 3 -1.</_>
        <_>
          18 10 2 3 3.</_></rects>
      <tilted>0</tilted></_>
    <_>
      <rects>
        <_>
          17 0 6 4 -1.</_>
        <_>
          17 0 3 2 2.</_>
        <_>
          20 2 3 2 2.</_></rects>
      <tilted>0</tilted></_>
    <_>
      <rects>
        <_>
          17 2 6 21 -1.</_>
        <_>
          19 2 2 21 3.</_></rects>
      <tilted>0</tilted></_>
    <_>
      <rects>
        <_>
          17 7 6 4 -1.</_>
        <_>
          19 7 2 4 3.</_></rects>
      <tilted>0</tilted></_>
    <_>
      <rects>
        <_>
          17 15 2 1 -1.</_>
        <_>
          18 15 1 1 2.</_></rects>
      <tilted>0</tilted></_>
    <_>
      <rects>
        <_>
          19 12 4 8 -1.</_>
        <_>
          21 12 2 8 2.</_></rects>
      <tilted>0</tilted></_>
    <_>
      <rects>
        <_>
          19 20 4 2 -1.</_>
        <_>
          19 20 2 1 2.</_>
        <_>
          21 21 2 1 2.</_></rects>
      <tilted>0</tilted></_>
    <_>
      <rects>
        <_>
          20 1 2 2 -1.</_>
        <_>
          20 1 1 1 2.</_>
        <_>
          21 2 1 1 2.</_></rects>
      <tilted>0</tilted></_>
    <_>
      <rects>
        <_>
          20 10 3 1 -1.</_>
        <_>
          21 10 1 1 3.</_></rects>
      <tilted>0</tilted></_>
    <_>
      <rects>
        <_>
          20 13 2 2 -1.</_>
        <_>
          20 13 1 1 2.</_>
        <_>
          21 14 1 1 2.</_></rects>
      <tilted>0</tilted></_>
    <_>
      <rects>
        <_>
          20 16 4 2 -1.</_>
        <_>
          20 16 2 1 2.</_>
        <_>
          22 17 2 1 2.</_></rects>
      <tilted>0</tilted></_>
    <_>
      <rects>
        <_>
          21 6 2 3 -1.</_>
        <_>
          21 7 2 1 3.</_></rects>
      <tilted>0</tilted></_>
    <_>
      <rects>
        <_>
          21 11 2 2 -1.</_>
        <_>
          21 11 1 1 2.</_>
        <_>
          22 12 1 1 2.</_></rects>
      <tilted>0</tilted></_>
    <_>
      <rects>
        <_>
          22 7 2 5 -1.</_>
        <_>
          23 7 1 5 2.</_></rects>
      <tilted>0</tilted></_>
    <_>
      <rects>
        <_>
          22 15 1 4 -1.</_>
        <_>
          22 17 1 2 2.</_></rects>
      <tilted>0</tilted></_></features></cascade>
</opencv_storage>
