<?xml version="1.0"?>
<opencv_storage>
<cascade>
  <stageType>BOOST</stageType>
  <featureType>HAAR</featureType>
  <height>24</height>
  <width>24</width>
  <stageParams>
    <boostType>GAB</boostType>
    <minHitRate>9.9500000476837158e-01</minHitRate>
    <maxFalseAlarm>5.0000000000000000e-01</maxFalseAlarm>
    <weightTrimRate>9.4999998807907104e-01</weightTrimRate>
    <maxDepth>1</maxDepth>
    <maxWeakCount>100</maxWeakCount></stageParams>
  <featureParams>
    <maxCatCount>0</maxCatCount>
    <featSize>1</featSize>
    <mode>BASIC</mode></featureParams>
  <stageNum>20</stageNum>
  <stages>
    <!-- stage 0 -->
    <_>
      <maxWeakCount>3</maxWeakCount>
      <stageThreshold>-6.9117546081542969e-01</stageThreshold>
      <weakClassifiers>
        <_>
          <internalNodes>
            0 -1 40 -1.8338099122047424e-02</internalNodes>
          <leafValues>
            8.5263156890869141e-01 -7.7142858505249023e-01</leafValues></_>
        <_>
          <internalNodes>
            0 -1 30 -3.6799773573875427e-02</internalNodes>
          <leafValues>
            8.7587308883666992e-01 -5.8844292163848877e-01</leafValues></_>
        <_>
          <internalNodes>
            0 -1 57 2.1522589959204197e-03</internalNodes>
          <leafValues>
            -6.2469738721847534e-01 6.6869598627090454e-01</leafValues></_></weakClassifiers></_>
    <!-- stage 1 -->
    <_>
      <maxWeakCount>2</maxWeakCount>
      <stageThreshold>1.0846138466149569e-03</stageThreshold>
      <weakClassifiers>
        <_>
          <internalNodes>
            0 -1 38 -2.1708425134420395e-02</internalNodes>
          <leafValues>
            5.8490568399429321e-01 -6.5957444906234741e-01</leafValues></_>
        <_>
          <internalNodes>
            0 -1 70 1.7327772453427315e-02</internalNodes>
          <leafValues>
            -5.8382105827331543e-01 7.6772922277450562e-01</leafValues></_></weakClassifiers></_>
    <!-- stage 2 -->
    <_>
      <maxWeakCount>3</maxWeakCount>
      <stageThreshold>-3.2297217845916748e-01</stageThreshold>
      <weakClassifiers>
        <_>
          <internalNodes>
            0 -1 28 -2.1266967058181763e-02</internalNodes>
          <leafValues>
            9.1044777631759644e-01 -4.5864662528038025e-01</leafValues></_>
        <_>
          <internalNodes>
            0 -1 44 3.3587079087737948e-05</internalNodes>
          <leafValues>
            -7.1807366609573364e-01 4.3942430615425110e-01</leafValues></_>
        <_>
          <internalNodes>
            0 -1 72 4.8538871109485626e-02</internalNodes>
          <leafValues>
            -3.0374988913536072e-01 1.</leafValues></_></weakClassifiers></_>
    <!-- stage 3 -->
    <_>
      <maxWeakCount>6</maxWeakCount>
      <stageThreshold>-6.5852451324462891e-01</stageThreshold>
      <weakClassifiers>
        <_>
          <internalNodes>
            0 -1 14 1.3025065883994102e-02</internalNodes>
          <leafValues>
            -4.0145984292030334e-01 8.7301588058471680e-01</leafValues></_>
        <_>
          <internalNodes>
            0 -1 53 -1.2273566797375679e-02</internalNodes>
          <leafValues>
            8.5448586940765381e-01 -2.3951283097267151e-01</leafValues></_>
        <_>
          <internalNodes>
            0 -1 11 -2.1373689174652100e-02</internalNodes>
          <leafValues>
            9.3914079666137695e-01 -2.8402796387672424e-01</leafValues></_>
        <_>
          <internalNodes>
            0 -1 74 5.1106791943311691e-02</internalNodes>
          <leafValues>
            -1.7911472916603088e-01 9.5114451646804810e-01</leafValues></_>
        <_>
          <internalNodes>
            0 -1 77 -8.2966126501560211e-03</internalNodes>
          <leafValues>
            1. -1.8578140437602997e-01</leafValues></_>
        <_>
          <internalNodes>
            0 -1 71 1.4862289652228355e-02</internalNodes>
          <leafValues>
            -4.6262639760971069e-01 6.3525640964508057e-01</leafValues></_></weakClassifiers></_>
    <!-- stage 4 -->
    <_>
      <maxWeakCount>3</maxWeakCount>
      <stageThreshold>-2.5445041060447693e-01</stageThreshold>
      <weakClassifiers>
        <_>
          <internalNodes>
            0 -1 24 -1.8130278587341309e-01</internalNodes>
          <leafValues>
            8.9830505847930908e-01 -3.7588652968406677e-01</leafValues></_>
        <_>
          <internalNodes>
            0 -1 58 9.2245038831606507e-04</internalNodes>
          <leafValues>
            -6.3782846927642822e-01 4.6324768662452698e-01</leafValues></_>
        <_>
          <internalNodes>
            0 -1 52 1.0419310629367828e-01</internalNodes>
          <leafValues>
            -3.4181159734725952e-01 8.4684443473815918e-01</leafValues></_></weakClassifiers></_>
    <!-- stage 5 -->
    <_>
      <maxWeakCount>5</maxWeakCount>
      <stageThreshold>-5.0626081228256226e-01</stageThreshold>
      <weakClassifiers>
        <_>
          <internalNodes>
            0 -1 17 2.0566200837492943e-02</internalNodes>
          <leafValues>
            -3.1999999284744263e-01 9.5999997854232788e-01</leafValues></_>
        <_>
          <internalNodes>
            0 -1 37 2.1552382968366146e-03</internalNodes>
          <leafValues>
            -5.9399336576461792e-01 4.3155926465988159e-01</leafValues></_>
        <_>
          <internalNodes>
            0 -1 51 -2.9391910880804062e-02</internalNodes>
          <leafValues>
            8.3993613719940186e-01 -2.6191571354866028e-01</leafValues></_>
        <_>
          <internalNodes>
            0 -1 5 2.3009399883449078e-03</internalNodes>
          <leafValues>
            3.7275549769401550e-01 -7.4227935075759888e-01</leafValues></_>
        <_>
          <internalNodes>
            0 -1 34 -1.4402316883206367e-03</internalNodes>
          <leafValues>
            3.8637498021125793e-01 -7.1007162332534790e-01</leafValues></_></weakClassifiers></_>
    <!-- stage 6 -->
    <_>
      <maxWeakCount>4</maxWeakCount>
      <stageThreshold>6.7993603646755219e-02</stageThreshold>
      <weakClassifiers>
        <_>
          <internalNodes>
            0 -1 31 -2.4838507175445557e-02</internalNodes>
          <leafValues>
            9.3442624807357788e-01 -4.1007193922996521e-01</leafValues></_>
        <_>
          <internalNodes>
            0 -1 27 -2.5087010115385056e-02</internalNodes>
          <leafValues>
            1. -1.8129175901412964e-01</leafValues></_>
        <_>
          <internalNodes>
            0 -1 55 4.3326541781425476e-03</internalNodes>
          <leafValues>
            -8.0429929494857788e-01 3.6803266406059265e-01</leafValues></_>
        <_>
          <internalNodes>
            0 -1 48 -2.8528003022074699e-03</internalNodes>
          <leafValues>
            -8.2238852977752686e-01 2.9132464528083801e-01</leafValues></_></weakClassifiers></_>
    <!-- stage 7 -->
    <_>
      <maxWeakCount>4</maxWeakCount>
      <stageThreshold>-1.1753289699554443e+00</stageThreshold>
      <weakClassifiers>
        <_>
          <internalNodes>
            0 -1 8 -1.9813595339655876e-02</internalNodes>
          <leafValues>
            9.2452830076217651e-01 -3.3333334326744080e-01</leafValues></_>
        <_>
          <internalNodes>
            0 -1 64 4.6955086290836334e-03</internalNodes>
          <leafValues>
            4.3490466475486755e-01 -8.2656198740005493e-01</leafValues></_>
        <_>
          <internalNodes>
            0 -1 39 -6.4715808257460594e-03</internalNodes>
          <leafValues>
            -8.8214248418807983e-01 3.6259490251541138e-01</leafValues></_>
        <_>
          <internalNodes>
            0 -1 81 -1.6173390671610832e-02</internalNodes>
          <leafValues>
            8.3795660734176636e-01 -3.9475777745246887e-01</leafValues></_></weakClassifiers></_>
    <!-- stage 8 -->
    <_>
      <maxWeakCount>4</maxWeakCount>
      <stageThreshold>-4.0601399540901184e-01</stageThreshold>
      <weakClassifiers>
        <_>
          <internalNodes>
            0 -1 9 5.6955169886350632e-02</internalNodes>
          <leafValues>
            -3.9130434393882751e-01 8.7096774578094482e-01</leafValues></_>
        <_>
          <internalNodes>
            0 -1 61 5.2599818445742130e-05</internalNodes>
          <leafValues>
            -5.5008888244628906e-01 5.9189128875732422e-01</leafValues></_>
        <_>
          <internalNodes>
            0 -1 75 1.3357545249164104e-02</internalNodes>
          <leafValues>
            -3.1937664747238159e-01 8.9332044124603271e-01</leafValues></_>
        <_>
          <internalNodes>
            0 -1 25 -1.6503740102052689e-02</internalNodes>
          <leafValues>
            9.4363772869110107e-01 -2.8722432255744934e-01</leafValues></_></weakClassifiers></_>
    <!-- stage 9 -->
    <_>
      <maxWeakCount>3</maxWeakCount>
      <stageThreshold>-3.7935876846313477e-01</stageThreshold>
      <weakClassifiers>
        <_>
          <internalNodes>
            0 -1 16 2.3777686059474945e-02</internalNodes>
          <leafValues>
            -3.6551722884178162e-01 9.6363633871078491e-01</leafValues></_>
        <_>
          <internalNodes>
            0 -1 33 -9.0237036347389221e-03</internalNodes>
          <leafValues>
            -6.6900181770324707e-01 5.6340819597244263e-01</leafValues></_>
        <_>
          <internalNodes>
            0 -1 67 2.5150724468403496e-05</internalNodes>
          <leafValues>
            -4.9374410510063171e-01 6.5516030788421631e-01</leafValues></_></weakClassifiers></_>
    <!-- stage 10 -->
    <_>
      <maxWeakCount>5</maxWeakCount>
      <stageThreshold>-5.0241827964782715e-01</stageThreshold>
      <weakClassifiers>
        <_>
          <internalNodes>
            0 -1 49 -4.4564636482391506e-05</internalNodes>
          <leafValues>
            4.3089431524276733e-01 -6.8831169605255127e-01</leafValues></_>
        <_>
          <internalNodes>
            0 -1 6 6.7793682217597961e-02</internalNodes>
          <leafValues>
            -3.5229408740997314e-01 9.0431302785873413e-01</leafValues></_>
        <_>
          <internalNodes>
            0 -1 47 -4.1954655898734927e-05</internalNodes>
          <leafValues>
            5.3705322742462158e-01 -6.3950586318969727e-01</leafValues></_>
        <_>
          <internalNodes>
            0 -1 10 2.8457996450015344e-05</internalNodes>
          <leafValues>
            -5.1500666141510010e-01 7.4142682552337646e-01</leafValues></_>
        <_>
          <internalNodes>
            0 -1 0 -9.1747343540191650e-03</internalNodes>
          <leafValues>
            -6.0306507349014282e-01 5.8737492561340332e-01</leafValues></_></weakClassifiers></_>
    <!-- stage 11 -->
    <_>
      <maxWeakCount>5</maxWeakCount>
      <stageThreshold>-2.2580458223819733e-01</stageThreshold>
      <weakClassifiers>
        <_>
          <internalNodes>
            0 -1 73 4.0937647223472595e-02</internalNodes>
          <leafValues>
            -3.1081080436706543e-01 8.8461536169052124e-01</leafValues></_>
        <_>
          <internalNodes>
            0 -1 59 4.7560883685946465e-03</internalNodes>
          <leafValues>
            3.1882417201995850e-01 -1.</leafValues></_>
        <_>
          <internalNodes>
            0 -1 7 1.5417631715536118e-02</internalNodes>
          <leafValues>
            -3.0700838565826416e-01 8.8787829875946045e-01</leafValues></_>
        <_>
          <internalNodes>
            0 -1 50 -1.8207609537057579e-04</internalNodes>
          <leafValues>
            3.8175451755523682e-01 -7.0308041572570801e-01</leafValues></_>
        <_>
          <internalNodes>
            0 -1 3 2.9904227703809738e-02</internalNodes>
          <leafValues>
            -3.0856409668922424e-01 7.8632658720016479e-01</leafValues></_></weakClassifiers></_>
    <!-- stage 12 -->
    <_>
      <maxWeakCount>4</maxWeakCount>
      <stageThreshold>-7.8909707069396973e-01</stageThreshold>
      <weakClassifiers>
        <_>
          <internalNodes>
            0 -1 13 -3.9506565779447556e-02</internalNodes>
          <leafValues>
            6.0465115308761597e-01 -4.5614033937454224e-01</leafValues></_>
        <_>
          <internalNodes>
            0 -1 54 1.9931662827730179e-02</internalNodes>
          <leafValues>
            3.1686088442802429e-01 -8.9621740579605103e-01</leafValues></_>
        <_>
          <internalNodes>
            0 -1 83 1.0670015588402748e-02</internalNodes>
          <leafValues>
            2.3763440549373627e-01 -8.9863348007202148e-01</leafValues></_>
        <_>
          <internalNodes>
            0 -1 36 7.2093941271305084e-03</internalNodes>
          <leafValues>
            3.1702968478202820e-01 -8.8745206594467163e-01</leafValues></_></weakClassifiers></_>
    <!-- stage 13 -->
    <_>
      <maxWeakCount>4</maxWeakCount>
      <stageThreshold>-5.6319034099578857e-01</stageThreshold>
      <weakClassifiers>
        <_>
          <internalNodes>
            0 -1 43 8.9401518926024437e-03</internalNodes>
          <leafValues>
            3.3812949061393738e-01 -7.7049177885055542e-01</leafValues></_>
        <_>
          <internalNodes>
            0 -1 15 8.3396852016448975e-02</internalNodes>
          <leafValues>
            -3.7224140763282776e-01 8.3813697099685669e-01</leafValues></_>
        <_>
          <internalNodes>
            0 -1 12 1.6587455756962299e-03</internalNodes>
          <leafValues>
            3.1237557530403137e-01 -1.</leafValues></_>
        <_>
          <internalNodes>
            0 -1 66 2.9828711412847042e-03</internalNodes>
          <leafValues>
            2.8168624639511108e-01 -8.4145402908325195e-01</leafValues></_></weakClassifiers></_>
    <!-- stage 14 -->
    <_>
      <maxWeakCount>4</maxWeakCount>
      <stageThreshold>-2.0096164941787720e-01</stageThreshold>
      <weakClassifiers>
        <_>
          <internalNodes>
            0 -1 63 5.3372932597994804e-03</internalNodes>
          <leafValues>
            4.3548387289047241e-01 -7.1052628755569458e-01</leafValues></_>
        <_>
          <internalNodes>
            0 -1 19 -5.4979458451271057e-02</internalNodes>
          <leafValues>
            6.4255833625793457e-01 -4.7188544273376465e-01</leafValues></_>
        <_>
          <internalNodes>
            0 -1 42 -2.2957220673561096e-02</internalNodes>
          <leafValues>
            7.9351729154586792e-01 -3.5333669185638428e-01</leafValues></_>
        <_>
          <internalNodes>
            0 -1 35 7.1975644677877426e-03</internalNodes>
          <leafValues>
            3.0939257144927979e-01 -9.2566716670989990e-01</leafValues></_></weakClassifiers></_>
    <!-- stage 15 -->
    <_>
      <maxWeakCount>4</maxWeakCount>
      <stageThreshold>-1.4527539908885956e-01</stageThreshold>
      <weakClassifiers>
        <_>
          <internalNodes>
            0 -1 2 -5.4802717640995979e-03</internalNodes>
          <leafValues>
            -8.0645161867141724e-01 3.6231884360313416e-01</leafValues></_>
        <_>
          <internalNodes>
            0 -1 22 2.7221884578466415e-02</internalNodes>
          <leafValues>
            -4.0182563662528992e-01 8.8107985258102417e-01</leafValues></_>
        <_>
          <internalNodes>
            0 -1 23 -2.7767866849899292e-02</internalNodes>
          <leafValues>
            6.9613134860992432e-01 -3.8885328173637390e-01</leafValues></_>
        <_>
          <internalNodes>
            0 -1 65 1.2254051398485899e-03</internalNodes>
          <leafValues>
            3.6687052249908447e-01 -7.5043600797653198e-01</leafValues></_></weakClassifiers></_>
    <!-- stage 16 -->
    <_>
      <maxWeakCount>6</maxWeakCount>
      <stageThreshold>-4.4785517454147339e-01</stageThreshold>
      <weakClassifiers>
        <_>
          <internalNodes>
            0 -1 32 -4.7666456550359726e-02</internalNodes>
          <leafValues>
            9.5454543828964233e-01 -2.6923078298568726e-01</leafValues></_>
        <_>
          <internalNodes>
            0 -1 1 7.0546679198741913e-03</internalNodes>
          <leafValues>
            3.9649483561515808e-01 -7.9960381984710693e-01</leafValues></_>
        <_>
          <internalNodes>
            0 -1 61 1.3705072924494743e-03</internalNodes>
          <leafValues>
            3.1112349033355713e-01 -7.4626457691192627e-01</leafValues></_>
        <_>
          <internalNodes>
            0 -1 20 -2.8933845460414886e-02</internalNodes>
          <leafValues>
            8.2939022779464722e-01 -3.1305018067359924e-01</leafValues></_>
        <_>
          <internalNodes>
            0 -1 21 9.8867993801832199e-04</internalNodes>
          <leafValues>
            3.1377366185188293e-01 -8.5570061206817627e-01</leafValues></_>
        <_>
          <internalNodes>
            0 -1 69 9.4910440966486931e-03</internalNodes>
          <leafValues>
            3.0937036871910095e-01 -8.3330792188644409e-01</leafValues></_></weakClassifiers></_>
    <!-- stage 17 -->
    <_>
      <maxWeakCount>6</maxWeakCount>
      <stageThreshold>-4.9490469694137573e-01</stageThreshold>
      <weakClassifiers>
        <_>
          <internalNodes>
            0 -1 41 -5.9961127117276192e-03</internalNodes>
          <leafValues>
            -9.5238095521926880e-01 2.5316455960273743e-01</leafValues></_>
        <_>
          <internalNodes>
            0 -1 18 3.0859904363751411e-02</internalNodes>
          <leafValues>
            -2.8827676177024841e-01 1.</leafValues></_>
        <_>
          <internalNodes>
            0 -1 62 1.3148339930921793e-03</internalNodes>
          <leafValues>
            4.1110625863075256e-01 -7.5385439395904541e-01</leafValues></_>
        <_>
          <internalNodes>
            0 -1 82 -1.3140917290002108e-03</internalNodes>
          <leafValues>
            -6.8546271324157715e-01 3.3149978518486023e-01</leafValues></_>
        <_>
          <internalNodes>
            0 -1 68 1.6024197684600949e-03</internalNodes>
          <leafValues>
            -3.7664666771888733e-01 6.4596855640411377e-01</leafValues></_>
        <_>
          <internalNodes>
            0 -1 45 -3.0510472133755684e-03</internalNodes>
          <leafValues>
            -8.0547779798507690e-01 3.7979367375373840e-01</leafValues></_></weakClassifiers></_>
    <!-- stage 18 -->
    <_>
      <maxWeakCount>5</maxWeakCount>
      <stageThreshold>-3.9510139822959900e-01</stageThreshold>
      <weakClassifiers>
        <_>
          <internalNodes>
            0 -1 80 -1.4889995567500591e-02</internalNodes>
          <leafValues>
            7.6666665077209473e-01 -3.2857143878936768e-01</leafValues></_>
        <_>
          <internalNodes>
            0 -1 76 -1.0547315701842308e-02</internalNodes>
          <leafValues>
            7.4555867910385132e-01 -2.4870571494102478e-01</leafValues></_>
        <_>
          <internalNodes>
            0 -1 4 -4.2166793718934059e-03</internalNodes>
          <leafValues>
            8.0570626258850098e-01 -2.9606369137763977e-01</leafValues></_>
        <_>
          <internalNodes>
            0 -1 46 5.9537291526794434e-03</internalNodes>
          <leafValues>
            -2.5193968415260315e-01 7.8625255823135376e-01</leafValues></_>
        <_>
          <internalNodes>
            0 -1 78 -1.3809734955430031e-03</internalNodes>
          <leafValues>
            7.3884338140487671e-01 -2.6408532261848450e-01</leafValues></_></weakClassifiers></_>
    <!-- stage 19 -->
    <_>
      <maxWeakCount>5</maxWeakCount>
      <stageThreshold>-4.0556919574737549e-01</stageThreshold>
      <weakClassifiers>
        <_>
          <internalNodes>
            0 -1 56 2.0091016776859760e-03</internalNodes>
          <leafValues>
            -6.5714287757873535e-01 3.5384616255760193e-01</leafValues></_>
        <_>
          <internalNodes>
            0 -1 79 -3.3700495259836316e-04</internalNodes>
          <leafValues>
            6.9929933547973633e-01 -3.6366793513298035e-01</leafValues></_>
        <_>
          <internalNodes>
            0 -1 26 -7.2291109245270491e-04</internalNodes>
          <leafValues>
            6.2444651126861572e-01 -4.0340694785118103e-01</leafValues></_>
        <_>
          <internalNodes>
            0 -1 60 2.5330268545076251e-04</internalNodes>
          <leafValues>
            -6.4192134141921997e-01 3.9575320482254028e-01</leafValues></_>
        <_>
          <internalNodes>
            0 -1 29 -4.1205871850252151e-02</internalNodes>
          <leafValues>
            7.4224996566772461e-01 -3.7827256321907043e-01</leafValues></_></weakClassifiers></_></stages>
  <features>
    <_>
      <rects>
        <_>
          0 3 14 6 -1.</_>
        <_>
          0 3 7 3 2.</_>
        <_>
          7 6 7 3 2.</_></rects>
      <tilted>0</tilted></_>
    <_>
      <rects>
        <_>
          1 3 3 14 -1.</_>
        <_>
          2 3 1 14 3.</_></rects>
      <tilted>0</tilted></_>
    <_>
      <rects>
        <_>
          1 4 3 13 -1.</_>
        <_>
          2 4 1 13 3.</_></rects>
      <tilted>0</tilted></_>
    <_>
      <rects>
        <_>
          2 4 4 18 -1.</_>
        <_>
          2 10 4 6 3.</_></rects>
      <tilted>0</tilted></_>
    <_>
      <rects>
        <_>
          3 2 3 5 -1.</_>
        <_>
          4 2 1 5 3.</_></rects>
      <tilted>0</tilted></_>
    <_>
      <rects>
        <_>
          3 2 6 4 -1.</_>
        <_>
          3 2 3 2 2.</_>
        <_>
          6 4 3 2 2.</_></rects>
      <tilted>0</tilted></_>
    <_>
      <rects>
        <_>
          3 3 6 13 -1.</_>
        <_>
          5 3 2 13 3.</_></rects>
      <tilted>0</tilted></_>
    <_>
      <rects>
        <_>
          3 4 6 3 -1.</_>
        <_>
          5 4 2 3 3.</_></rects>
      <tilted>0</tilted></_>
    <_>
      <rects>
        <_>
          3 5 3 18 -1.</_>
        <_>
          4 5 1 18 3.</_></rects>
      <tilted>0</tilted></_>
    <_>
      <rects>
        <_>
          3 5 6 16 -1.</_>
        <_>
          5 5 2 16 3.</_></rects>
      <tilted>0</tilted></_>
    <_>
      <rects>
        <_>
          3 11 2 2 -1.</_>
        <_>
          3 11 1 1 2.</_>
        <_>
          4 12 1 1 2.</_></rects>
      <tilted>0</tilted></_>
    <_>
      <rects>
        <_>
          3 16 6 6 -1.</_>
        <_>
          5 16 2 6 3.</_></rects>
      <tilted>0</tilted></_>
    <_>
      <rects>
        <_>
          4 0 3 1 -1.</_>
        <_>
          5 0 1 1 3.</_></rects>
      <tilted>0</tilted></_>
    <_>
      <rects>
        <_>
          4 2 10 22 -1.</_>
        <_>
          9 2 5 22 2.</_></rects>
      <tilted>0</tilted></_>
    <_>
      <rects>
        <_>
          4 3 2 16 -1.</_>
        <_>
          5 3 1 16 2.</_></rects>
      <tilted>0</tilted></_>
    <_>
      <rects>
        <_>
          4 3 13 21 -1.</_>
        <_>
          4 10 13 7 3.</_></rects>
      <tilted>0</tilted></_>
    <_>
      <rects>
        <_>
          4 4 3 20 -1.</_>
        <_>
          5 4 1 20 3.</_></rects>
      <tilted>0</tilted></_>
    <_>
      <rects>
        <_>
          4 6 2 14 -1.</_>
        <_>
          5 6 1 14 2.</_></rects>
      <tilted>0</tilted></_>
    <_>
      <rects>
        <_>
          4 9 2 12 -1.</_>
        <_>
          5 9 1 12 2.</_></rects>
      <tilted>0</tilted></_>
    <_>
      <rects>
        <_>
          4 9 15 10 -1.</_>
        <_>
          9 9 5 10 3.</_></rects>
      <tilted>0</tilted></_>
    <_>
      <rects>
        <_>
          4 16 20 8 -1.</_>
        <_>
          4 20 20 4 2.</_></rects>
      <tilted>0</tilted></_>
    <_>
      <rects>
        <_>
          5 0 2 1 -1.</_>
        <_>
          6 0 1 1 2.</_></rects>
      <tilted>0</tilted></_>
    <_>
      <rects>
        <_>
          5 0 2 18 -1.</_>
        <_>
          5 9 2 9 2.</_></rects>
      <tilted>0</tilted></_>
    <_>
      <rects>
        <_>
          5 0 18 4 -1.</_>
        <_>
          11 0 6 4 3.</_></rects>
      <tilted>0</tilted></_>
    <_>
      <rects>
        <_>
          5 1 18 23 -1.</_>
        <_>
          11 1 6 23 3.</_></rects>
      <tilted>0</tilted></_>
    <_>
      <rects>
        <_>
          5 5 3 12 -1.</_>
        <_>
          6 5 1 12 3.</_></rects>
      <tilted>0</tilted></_>
    <_>
      <rects>
        <_>
          5 6 3 1 -1.</_>
        <_>
          6 6 1 1 3.</_></rects>
      <tilted>0</tilted></_>
    <_>
      <rects>
        <_>
          5 6 3 17 -1.</_>
        <_>
          6 6 1 17 3.</_></rects>
      <tilted>0</tilted></_>
    <_>
      <rects>
        <_>
          5 6 4 13 -1.</_>
        <_>
          7 6 2 13 2.</_></rects>
      <tilted>0</tilted></_>
    <_>
      <rects>
        <_>
          5 6 6 15 -1.</_>
        <_>
          7 6 2 15 3.</_></rects>
      <tilted>0</tilted></_>
    <_>
      <rects>
        <_>
          5 8 18 16 -1.</_>
        <_>
          11 8 6 16 3.</_></rects>
      <tilted>0</tilted></_>
    <_>
      <rects>
        <_>
          5 10 4 12 -1.</_>
        <_>
          7 10 2 12 2.</_></rects>
      <tilted>0</tilted></_>
    <_>
      <rects>
        <_>
          5 11 4 13 -1.</_>
        <_>
          7 11 2 13 2.</_></rects>
      <tilted>0</tilted></_>
    <_>
      <rects>
        <_>
          7 0 4 19 -1.</_>
        <_>
          9 0 2 19 2.</_></rects>
      <tilted>0</tilted></_>
    <_>
      <rects>
        <_>
          8 2 4 21 -1.</_>
        <_>
          10 2 2 21 2.</_></rects>
      <tilted>0</tilted></_>
    <_>
      <rects>
        <_>
          8 3 2 14 -1.</_>
        <_>
          9 3 1 14 2.</_></rects>
      <tilted>0</tilted></_>
    <_>
      <rects>
        <_>
          8 3 2 19 -1.</_>
        <_>
          9 3 1 19 2.</_></rects>
      <tilted>0</tilted></_>
    <_>
      <rects>
        <_>
          9 0 3 15 -1.</_>
        <_>
          10 0 1 15 3.</_></rects>
      <tilted>0</tilted></_>
    <_>
      <rects>
        <_>
          9 0 6 16 -1.</_>
        <_>
          11 0 2 16 3.</_></rects>
      <tilted>0</tilted></_>
    <_>
      <rects>
        <_>
          9 1 2 17 -1.</_>
        <_>
          10 1 1 17 2.</_></rects>
      <tilted>0</tilted></_>
    <_>
      <rects>
        <_>
          9 1 6 16 -1.</_>
        <_>
          11 1 2 16 3.</_></rects>
      <tilted>0</tilted></_>
    <_>
      <rects>
        <_>
          9 6 2 12 -1.</_>
        <_>
          10 6 1 12 2.</_></rects>
      <tilted>0</tilted></_>
    <_>
      <rects>
        <_>
          9 6 8 14 -1.</_>
        <_>
          13 6 4 14 2.</_></rects>
      <tilted>0</tilted></_>
    <_>
      <rects>
        <_>
          9 14 3 8 -1.</_>
        <_>
          10 14 1 8 3.</_></rects>
      <tilted>0</tilted></_>
    <_>
      <rects>
        <_>
          9 18 3 6 -1.</_>
        <_>
          10 18 1 6 3.</_></rects>
      <tilted>0</tilted></_>
    <_>
      <rects>
        <_>
          10 0 2 8 -1.</_>
        <_>
          10 0 1 4 2.</_>
        <_>
          11 4 1 4 2.</_></rects>
      <tilted>0</tilted></_>
    <_>
      <rects>
        <_>
          10 0 3 18 -1.</_>
        <_>
          11 0 1 18 3.</_></rects>
      <tilted>0</tilted></_>
    <_>
      <rects>
        <_>
          10 5 2 1 -1.</_>
        <_>
          11 5 1 1 2.</_></rects>
      <tilted>0</tilted></_>
    <_>
      <rects>
        <_>
          10 5 5 3 -1.</_>
        <_>
          10 6 5 1 3.</_></rects>
      <tilted>0</tilted></_>
    <_>
      <rects>
        <_>
          10 14 2 3 -1.</_>
        <_>
          11 14 1 3 2.</_></rects>
      <tilted>0</tilted></_>
    <_>
      <rects>
        <_>
          10 17 2 2 -1.</_>
        <_>
          11 17 1 2 2.</_></rects>
      <tilted>0</tilted></_>
    <_>
      <rects>
        <_>
          11 0 3 20 -1.</_>
        <_>
          12 0 1 20 3.</_></rects>
      <tilted>0</tilted></_>
    <_>
      <rects>
        <_>
          11 2 12 18 -1.</_>
        <_>
          15 2 4 18 3.</_></rects>
      <tilted>0</tilted></_>
    <_>
      <rects>
        <_>
          11 3 2 13 -1.</_>
        <_>
          12 3 1 13 2.</_></rects>
      <tilted>0</tilted></_>
    <_>
      <rects>
        <_>
          12 2 3 17 -1.</_>
        <_>
          13 2 1 17 3.</_></rects>
      <tilted>0</tilted></_>
    <_>
      <rects>
        <_>
          12 2 2 22 -1.</_>
        <_>
          13 2 1 22 2.</_></rects>
      <tilted>0</tilted></_>
    <_>
      <rects>
        <_>
          12 3 2 9 -1.</_>
        <_>
          13 3 1 9 2.</_></rects>
      <tilted>0</tilted></_>
    <_>
      <rects>
        <_>
          12 4 2 8 -1.</_>
        <_>
          13 4 1 8 2.</_></rects>
      <tilted>0</tilted></_>
    <_>
      <rects>
        <_>
          12 9 2 5 -1.</_>
        <_>
          13 9 1 5 2.</_></rects>
      <tilted>0</tilted></_>
    <_>
      <rects>
        <_>
          12 11 3 2 -1.</_>
        <_>
          13 11 1 2 3.</_></rects>
      <tilted>0</tilted></_>
    <_>
      <rects>
        <_>
          12 13 2 3 -1.</_>
        <_>
          13 13 1 3 2.</_></rects>
      <tilted>0</tilted></_>
    <_>
      <rects>
        <_>
          12 19 2 1 -1.</_>
        <_>
          13 19 1 1 2.</_></rects>
      <tilted>0</tilted></_>
    <_>
      <rects>
        <_>
          13 2 2 3 -1.</_>
        <_>
          14 2 1 3 2.</_></rects>
      <tilted>0</tilted></_>
    <_>
      <rects>
        <_>
          13 4 3 10 -1.</_>
        <_>
          14 4 1 10 3.</_></rects>
      <tilted>0</tilted></_>
    <_>
      <rects>
        <_>
          13 9 2 11 -1.</_>
        <_>
          14 9 1 11 2.</_></rects>
      <tilted>0</tilted></_>
    <_>
      <rects>
        <_>
          13 12 3 1 -1.</_>
        <_>
          14 12 1 1 3.</_></rects>
      <tilted>0</tilted></_>
    <_>
      <rects>
        <_>
          14 0 3 4 -1.</_>
        <_>
          15 0 1 4 3.</_></rects>
      <tilted>0</tilted></_>
    <_>
      <rects>
        <_>
          14 13 2 2 -1.</_>
        <_>
          14 13 1 1 2.</_>
        <_>
          15 14 1 1 2.</_></rects>
      <tilted>0</tilted></_>
    <_>
      <rects>
        <_>
          15 1 4 3 -1.</_>
        <_>
          15 2 4 1 3.</_></rects>
      <tilted>0</tilted></_>
    <_>
      <rects>
        <_>
          15 2 2 22 -1.</_>
        <_>
          16 2 1 22 2.</_></rects>
      <tilted>0</tilted></_>
    <_>
      <rects>
        <_>
          15 3 6 11 -1.</_>
        <_>
          17 3 2 11 3.</_></rects>
      <tilted>0</tilted></_>
    <_>
      <rects>
        <_>
          15 4 7 14 -1.</_>
        <_>
          15 11 7 7 2.</_></rects>
      <tilted>0</tilted></_>
    <_>
      <rects>
        <_>
          15 8 6 11 -1.</_>
        <_>
          17 8 2 11 3.</_></rects>
      <tilted>0</tilted></_>
    <_>
      <rects>
        <_>
          15 12 6 7 -1.</_>
        <_>
          17 12 2 7 3.</_></rects>
      <tilted>0</tilted></_>
    <_>
      <rects>
        <_>
          15 12 6 9 -1.</_>
        <_>
          17 12 2 9 3.</_></rects>
      <tilted>0</tilted></_>
    <_>
      <rects>
        <_>
          16 4 2 13 -1.</_>
        <_>
          17 4 1 13 2.</_></rects>
      <tilted>0</tilted></_>
    <_>
      <rects>
        <_>
          16 6 3 9 -1.</_>
        <_>
          17 6 1 9 3.</_></rects>
      <tilted>0</tilted></_>
    <_>
      <rects>
        <_>
          16 9 2 10 -1.</_>
        <_>
          17 9 1 10 2.</_></rects>
      <tilted>0</tilted></_>
    <_>
      <rects>
        <_>
          16 18 2 2 -1.</_>
        <_>
          17 18 1 2 2.</_></rects>
      <tilted>0</tilted></_>
    <_>
      <rects>
        <_>
          16 20 2 2 -1.</_>
        <_>
          16 20 1 1 2.</_>
        <_>
          17 21 1 1 2.</_></rects>
      <tilted>0</tilted></_>
    <_>
      <rects>
        <_>
          17 8 4 8 -1.</_>
        <_>
          19 8 2 8 2.</_></rects>
      <tilted>0</tilted></_>
    <_>
      <rects>
        <_>
          18 3 3 20 -1.</_>
        <_>
          19 3 1 20 3.</_></rects>
      <tilted>0</tilted></_>
    <_>
      <rects>
        <_>
          19 7 2 3 -1.</_>
        <_>
          20 7 1 3 2.</_></rects>
      <tilted>0</tilted></_>
    <_>
      <rects>
        <_>
          20 0 2 24 -1.</_>
        <_>
          21 0 1 24 2.</_></rects>
      <tilted>0</tilted></_></features></cascade>
</opencv_storage>
